<?xml version="1.0"?>
<opencv_storage>
<cascade>
  <stageType>BOOST</stageType>
  <featureType>HAAR</featureType>
  <height>24</height>
  <width>24</width>
  <stageParams>
    <boostType>GAB</boostType>
    <minHitRate>9.9900001287460327e-01</minHitRate>
    <maxFalseAlarm>4.0000000596046448e-01</maxFalseAlarm>
    <weightTrimRate>9.4999999999999996e-01</weightTrimRate>
    <maxDepth>1</maxDepth>
    <maxWeakCount>100</maxWeakCount></stageParams>
  <featureParams>
    <maxCatCount>0</maxCatCount>
    <featSize>1</featSize>
    <mode>BASIC</mode></featureParams>
  <stageNum>16</stageNum>
  <stages>
    <!-- stage 0 -->
    <_>
      <maxWeakCount>6</maxWeakCount>
      <stageThreshold>-2.2632761001586914e+00</stageThreshold>
      <weakClassifiers>
        <_>
          <internalNodes>
            0 -1 93 -1.1107565462589264e-01</internalNodes>
          <leafValues>
            6.7801856994628906e-01 -9.4063460826873779e-01</leafValues></_>
        <_>
          <internalNodes>
            0 -1 23 -1.6957730054855347e-01</internalNodes>
          <leafValues>
            8.3709162473678589e-01 -7.0609182119369507e-01</leafValues></_>
        <_>
          <internalNodes>
            0 -1 109 -7.6278515160083771e-02</internalNodes>
          <leafValues>
            4.8960682749748230e-01 -9.2191481590270996e-01</leafValues></_>
        <_>
          <internalNodes>
            0 -1 61 -3.5669624805450439e-01</internalNodes>
          <leafValues>
            8.9052897691726685e-01 -4.8535412549972534e-01</leafValues></_>
        <_>
          <internalNodes>
            0 -1 124 -2.3612785153090954e-03</internalNodes>
          <leafValues>
            4.5523363351821899e-01 -7.4369573593139648e-01</leafValues></_>
        <_>
          <internalNodes>
            0 -1 212 -1.8891000654548407e-03</internalNodes>
          <leafValues>
            -8.2764804363250732e-01 3.3548566699028015e-01</leafValues></_></weakClassifiers></_>
    <!-- stage 1 -->
    <_>
      <maxWeakCount>5</maxWeakCount>
      <stageThreshold>-1.1550679206848145e+00</stageThreshold>
      <weakClassifiers>
        <_>
          <internalNodes>
            0 -1 90 -1.6956034302711487e-01</internalNodes>
          <leafValues>
            3.6962750554084778e-01 -8.7171399593353271e-01</leafValues></_>
        <_>
          <internalNodes>
            0 -1 135 -1.4424553513526917e-01</internalNodes>
          <leafValues>
            2.9028797149658203e-01 -8.1094062328338623e-01</leafValues></_>
        <_>
          <internalNodes>
            0 -1 44 2.4768698494881392e-03</internalNodes>
          <leafValues>
            2.4818360805511475e-01 -9.0579670667648315e-01</leafValues></_>
        <_>
          <internalNodes>
            0 -1 171 3.9166301488876343e-02</internalNodes>
          <leafValues>
            -3.0777311325073242e-01 8.0346387624740601e-01</leafValues></_>
        <_>
          <internalNodes>
            0 -1 177 -1.3209125027060509e-02</internalNodes>
          <leafValues>
            5.8717620372772217e-01 -4.0373921394348145e-01</leafValues></_></weakClassifiers></_>
    <!-- stage 2 -->
    <_>
      <maxWeakCount>7</maxWeakCount>
      <stageThreshold>-1.0211546421051025e+00</stageThreshold>
      <weakClassifiers>
        <_>
          <internalNodes>
            0 -1 123 -2.7081352472305298e-01</internalNodes>
          <leafValues>
            3.0769231915473938e-01 -7.2420263290405273e-01</leafValues></_>
        <_>
          <internalNodes>
            0 -1 91 -2.2311833500862122e-01</internalNodes>
          <leafValues>
            2.7891075611114502e-01 -6.3359951972961426e-01</leafValues></_>
        <_>
          <internalNodes>
            0 -1 213 -9.1467238962650299e-03</internalNodes>
          <leafValues>
            -8.5438221693038940e-01 2.4799968302249908e-01</leafValues></_>
        <_>
          <internalNodes>
            0 -1 19 -8.0441191792488098e-02</internalNodes>
          <leafValues>
            8.6430066823959351e-01 -2.3714908957481384e-01</leafValues></_>
        <_>
          <internalNodes>
            0 -1 55 -1.1976258829236031e-03</internalNodes>
          <leafValues>
            -8.4340596199035645e-01 2.4333865940570831e-01</leafValues></_>
        <_>
          <internalNodes>
            0 -1 211 -4.1783954948186874e-03</internalNodes>
          <leafValues>
            -8.9543998241424561e-01 1.4908015727996826e-01</leafValues></_>
        <_>
          <internalNodes>
            0 -1 136 -8.7417900562286377e-02</internalNodes>
          <leafValues>
            -9.3874961137771606e-01 1.2324966490268707e-01</leafValues></_></weakClassifiers></_>
    <!-- stage 3 -->
    <_>
      <maxWeakCount>10</maxWeakCount>
      <stageThreshold>-1.4155887365341187e+00</stageThreshold>
      <weakClassifiers>
        <_>
          <internalNodes>
            0 -1 152 7.9702116549015045e-02</internalNodes>
          <leafValues>
            -7.6879912614822388e-01 -3.6674816161394119e-02</leafValues></_>
        <_>
          <internalNodes>
            0 -1 10 -4.2122706770896912e-02</internalNodes>
          <leafValues>
            3.2881593704223633e-01 -5.2788758277893066e-01</leafValues></_>
        <_>
          <internalNodes>
            0 -1 199 1.1449747253209352e-03</internalNodes>
          <leafValues>
            1.7566128075122833e-01 -7.4303072690963745e-01</leafValues></_>
        <_>
          <internalNodes>
            0 -1 148 -3.9487686008214951e-03</internalNodes>
          <leafValues>
            3.6920285224914551e-01 -4.0183135867118835e-01</leafValues></_>
        <_>
          <internalNodes>
            0 -1 20 2.5008968077600002e-03</internalNodes>
          <leafValues>
            1.5727616846561432e-01 -8.6217826604843140e-01</leafValues></_>
        <_>
          <internalNodes>
            0 -1 175 1.7122244462370872e-03</internalNodes>
          <leafValues>
            1.5046092867851257e-01 -7.8933244943618774e-01</leafValues></_>
        <_>
          <internalNodes>
            0 -1 218 -2.0373999141156673e-03</internalNodes>
          <leafValues>
            -7.6569312810897827e-01 1.4966864883899689e-01</leafValues></_>
        <_>
          <internalNodes>
            0 -1 220 -4.0683420374989510e-03</internalNodes>
          <leafValues>
            -8.3547896146774292e-01 1.5700796246528625e-01</leafValues></_>
        <_>
          <internalNodes>
            0 -1 141 1.6274711489677429e-01</internalNodes>
          <leafValues>
            -2.5122541189193726e-01 6.4986586570739746e-01</leafValues></_>
        <_>
          <internalNodes>
            0 -1 119 4.4495262205600739e-02</internalNodes>
          <leafValues>
            -2.4164973199367523e-01 5.4252821207046509e-01</leafValues></_></weakClassifiers></_>
    <!-- stage 4 -->
    <_>
      <maxWeakCount>10</maxWeakCount>
      <stageThreshold>-1.5119081735610962e+00</stageThreshold>
      <weakClassifiers>
        <_>
          <internalNodes>
            0 -1 118 3.4276556223630905e-02</internalNodes>
          <leafValues>
            -6.9708371162414551e-01 1.7299577593803406e-01</leafValues></_>
        <_>
          <internalNodes>
            0 -1 6 -3.7077307701110840e-02</internalNodes>
          <leafValues>
            4.0974855422973633e-01 -4.9975782632827759e-01</leafValues></_>
        <_>
          <internalNodes>
            0 -1 115 5.2780266851186752e-03</internalNodes>
          <leafValues>
            -4.5962527394294739e-01 3.9485689997673035e-01</leafValues></_>
        <_>
          <internalNodes>
            0 -1 81 -1.5512200072407722e-02</internalNodes>
          <leafValues>
            2.2158467769622803e-01 -7.1536689996719360e-01</leafValues></_>
        <_>
          <internalNodes>
            0 -1 201 -8.9820247376337647e-04</internalNodes>
          <leafValues>
            3.5648337006568909e-01 -4.3188235163688660e-01</leafValues></_>
        <_>
          <internalNodes>
            0 -1 173 1.8424285575747490e-02</internalNodes>
          <leafValues>
            -2.4307179450988770e-01 5.2243626117706299e-01</leafValues></_>
        <_>
          <internalNodes>
            0 -1 155 -1.4028981328010559e-02</internalNodes>
          <leafValues>
            4.5273694396018982e-01 -3.0059510469436646e-01</leafValues></_>
        <_>
          <internalNodes>
            0 -1 97 -4.5900018885731697e-03</internalNodes>
          <leafValues>
            2.6469334959983826e-01 -4.9549117684364319e-01</leafValues></_>
        <_>
          <internalNodes>
            0 -1 132 -9.7521406132727861e-04</internalNodes>
          <leafValues>
            -6.7159724235534668e-01 1.7015083134174347e-01</leafValues></_>
        <_>
          <internalNodes>
            0 -1 119 -5.2437786012887955e-02</internalNodes>
          <leafValues>
            6.0694134235382080e-01 -2.2661580145359039e-01</leafValues></_></weakClassifiers></_>
    <!-- stage 5 -->
    <_>
      <maxWeakCount>13</maxWeakCount>
      <stageThreshold>-1.6785081624984741e+00</stageThreshold>
      <weakClassifiers>
        <_>
          <internalNodes>
            0 -1 21 -3.8494408130645752e-02</internalNodes>
          <leafValues>
            2.1951219439506531e-01 -6.4788734912872314e-01</leafValues></_>
        <_>
          <internalNodes>
            0 -1 198 -9.7236945293843746e-04</internalNodes>
          <leafValues>
            -8.9697772264480591e-01 4.6472277492284775e-02</leafValues></_>
        <_>
          <internalNodes>
            0 -1 223 1.2554414570331573e-03</internalNodes>
          <leafValues>
            1.1327001452445984e-01 -7.9112696647644043e-01</leafValues></_>
        <_>
          <internalNodes>
            0 -1 2 -6.2572187744081020e-04</internalNodes>
          <leafValues>
            -7.0659887790679932e-01 1.4472845196723938e-01</leafValues></_>
        <_>
          <internalNodes>
            0 -1 197 2.0754761062562466e-03</internalNodes>
          <leafValues>
            1.2820650637149811e-01 -8.2076442241668701e-01</leafValues></_>
        <_>
          <internalNodes>
            0 -1 163 3.4042787738144398e-03</internalNodes>
          <leafValues>
            -3.4760943055152893e-01 3.2415673136711121e-01</leafValues></_>
        <_>
          <internalNodes>
            0 -1 117 1.1916490271687508e-02</internalNodes>
          <leafValues>
            -2.8590816259384155e-01 4.2154797911643982e-01</leafValues></_>
        <_>
          <internalNodes>
            0 -1 0 3.5633158404380083e-03</internalNodes>
          <leafValues>
            1.4474767446517944e-01 -8.5820835828781128e-01</leafValues></_>
        <_>
          <internalNodes>
            0 -1 223 -1.6965030226856470e-03</internalNodes>
          <leafValues>
            -7.8196835517883301e-01 1.0876610875129700e-01</leafValues></_>
        <_>
          <internalNodes>
            0 -1 126 -3.5643782466650009e-02</internalNodes>
          <leafValues>
            3.3911451697349548e-01 -3.3940911293029785e-01</leafValues></_>
        <_>
          <internalNodes>
            0 -1 178 3.2490834593772888e-02</internalNodes>
          <leafValues>
            -2.4204097688198090e-01 4.8567399382591248e-01</leafValues></_>
        <_>
          <internalNodes>
            0 -1 13 -1.1389500286895782e-04</internalNodes>
          <leafValues>
            -4.8719164729118347e-01 2.4035243690013885e-01</leafValues></_>
        <_>
          <internalNodes>
            0 -1 56 -1.0431532282382250e-03</internalNodes>
          <leafValues>
            -6.9302755594253540e-01 1.6220039129257202e-01</leafValues></_></weakClassifiers></_>
    <!-- stage 6 -->
    <_>
      <maxWeakCount>12</maxWeakCount>
      <stageThreshold>-1.3618725538253784e+00</stageThreshold>
      <weakClassifiers>
        <_>
          <internalNodes>
            0 -1 63 -1.2762816622853279e-02</internalNodes>
          <leafValues>
            -1.7064847052097321e-02 -6.9016879796981812e-01</leafValues></_>
        <_>
          <internalNodes>
            0 -1 133 3.3226739615201950e-02</internalNodes>
          <leafValues>
            -3.2002580165863037e-01 4.4557908177375793e-01</leafValues></_>
        <_>
          <internalNodes>
            0 -1 75 -2.7692344039678574e-02</internalNodes>
          <leafValues>
            3.5509461164474487e-01 -3.6157569289207458e-01</leafValues></_>
        <_>
          <internalNodes>
            0 -1 130 2.6149031327804551e-05</internalNodes>
          <leafValues>
            -4.4036969542503357e-01 2.6152592897415161e-01</leafValues></_>
        <_>
          <internalNodes>
            0 -1 168 1.1471176985651255e-03</internalNodes>
          <leafValues>
            1.8222850561141968e-01 -8.9995008707046509e-01</leafValues></_>
        <_>
          <internalNodes>
            0 -1 156 -1.7482599243521690e-02</internalNodes>
          <leafValues>
            4.3753483891487122e-01 -3.2671767473220825e-01</leafValues></_>
        <_>
          <internalNodes>
            0 -1 196 -8.3683041157200933e-04</internalNodes>
          <leafValues>
            -8.1443780660629272e-01 1.7960059642791748e-01</leafValues></_>
        <_>
          <internalNodes>
            0 -1 154 5.6174634664785117e-05</internalNodes>
          <leafValues>
            -4.5296704769134521e-01 2.4389198422431946e-01</leafValues></_>
        <_>
          <internalNodes>
            0 -1 11 -3.3968932926654816e-02</internalNodes>
          <leafValues>
            7.3864787817001343e-01 -1.4955088496208191e-01</leafValues></_>
        <_>
          <internalNodes>
            0 -1 39 3.7270772736519575e-03</internalNodes>
          <leafValues>
            -3.4056940674781799e-01 3.4624505043029785e-01</leafValues></_>
        <_>
          <internalNodes>
            0 -1 88 2.4363514035940170e-02</internalNodes>
          <leafValues>
            -2.1977716684341431e-01 5.2843749523162842e-01</leafValues></_>
        <_>
          <internalNodes>
            0 -1 86 1.8723455723375082e-03</internalNodes>
          <leafValues>
            1.6449123620986938e-01 -7.8221219778060913e-01</leafValues></_></weakClassifiers></_>
    <!-- stage 7 -->
    <_>
      <maxWeakCount>14</maxWeakCount>
      <stageThreshold>-1.4051798582077026e+00</stageThreshold>
      <weakClassifiers>
        <_>
          <internalNodes>
            0 -1 47 -3.9011515676975250e-02</internalNodes>
          <leafValues>
            3.2075470685958862e-01 -6.1474037170410156e-01</leafValues></_>
        <_>
          <internalNodes>
            0 -1 111 -3.3091045916080475e-02</internalNodes>
          <leafValues>
            1.8060623109340668e-01 -5.3700506687164307e-01</leafValues></_>
        <_>
          <internalNodes>
            0 -1 217 1.2935021659359336e-03</internalNodes>
          <leafValues>
            1.3442020118236542e-01 -7.5828236341476440e-01</leafValues></_>
        <_>
          <internalNodes>
            0 -1 219 -2.4772128090262413e-03</internalNodes>
          <leafValues>
            -8.3895957469940186e-01 1.2859739363193512e-01</leafValues></_>
        <_>
          <internalNodes>
            0 -1 149 -9.7769275307655334e-03</internalNodes>
          <leafValues>
            -8.9719748497009277e-01 1.0767531394958496e-01</leafValues></_>
        <_>
          <internalNodes>
            0 -1 179 -2.1609403192996979e-02</internalNodes>
          <leafValues>
            5.0628924369812012e-01 -2.2546610236167908e-01</leafValues></_>
        <_>
          <internalNodes>
            0 -1 3 -2.4469164200127125e-03</internalNodes>
          <leafValues>
            -8.4129434823989868e-01 1.2079542875289917e-01</leafValues></_>
        <_>
          <internalNodes>
            0 -1 127 2.9450408183038235e-03</internalNodes>
          <leafValues>
            1.7894144356250763e-01 -5.2307671308517456e-01</leafValues></_>
        <_>
          <internalNodes>
            0 -1 16 3.3577249269001186e-05</internalNodes>
          <leafValues>
            -4.1846823692321777e-01 2.2664970159530640e-01</leafValues></_>
        <_>
          <internalNodes>
            0 -1 36 -1.2840845156461000e-03</internalNodes>
          <leafValues>
            2.1580304205417633e-01 -4.3801948428153992e-01</leafValues></_>
        <_>
          <internalNodes>
            0 -1 182 1.1236640624701977e-02</internalNodes>
          <leafValues>
            -2.7504464983940125e-01 3.9684656262397766e-01</leafValues></_>
        <_>
          <internalNodes>
            0 -1 53 3.2471364829689264e-03</internalNodes>
          <leafValues>
            1.1292105168104172e-01 -9.2044270038604736e-01</leafValues></_>
        <_>
          <internalNodes>
            0 -1 74 -1.0388063674326986e-04</internalNodes>
          <leafValues>
            2.2492679953575134e-01 -4.0350937843322754e-01</leafValues></_>
        <_>
          <internalNodes>
            0 -1 175 -1.5491629019379616e-03</internalNodes>
          <leafValues>
            -6.6312021017074585e-01 1.4348208904266357e-01</leafValues></_></weakClassifiers></_>
    <!-- stage 8 -->
    <_>
      <maxWeakCount>13</maxWeakCount>
      <stageThreshold>-1.3411724567413330e+00</stageThreshold>
      <weakClassifiers>
        <_>
          <internalNodes>
            0 -1 83 -6.0995101928710938e-02</internalNodes>
          <leafValues>
            2.2033898532390594e-01 -6.1421316862106323e-01</leafValues></_>
        <_>
          <internalNodes>
            0 -1 205 -1.0113166354130954e-04</internalNodes>
          <leafValues>
            1.8353362381458282e-01 -4.7579729557037354e-01</leafValues></_>
        <_>
          <internalNodes>
            0 -1 134 -1.0234382003545761e-02</internalNodes>
          <leafValues>
            3.8481122255325317e-01 -2.3360832035541534e-01</leafValues></_>
        <_>
          <internalNodes>
            0 -1 79 -3.2031011581420898e-01</internalNodes>
          <leafValues>
            3.6136949062347412e-01 -2.6573455333709717e-01</leafValues></_>
        <_>
          <internalNodes>
            0 -1 107 2.0221296697854996e-02</internalNodes>
          <leafValues>
            -1.4197552204132080e-01 6.4152103662490845e-01</leafValues></_>
        <_>
          <internalNodes>
            0 -1 85 -2.0593039691448212e-02</internalNodes>
          <leafValues>
            5.0093328952789307e-01 -1.6974060237407684e-01</leafValues></_>
        <_>
          <internalNodes>
            0 -1 187 -3.4269909519935027e-05</internalNodes>
          <leafValues>
            2.2340410947799683e-01 -4.1485503315925598e-01</leafValues></_>
        <_>
          <internalNodes>
            0 -1 210 2.0817620679736137e-03</internalNodes>
          <leafValues>
            1.1786591261625290e-01 -8.0173498392105103e-01</leafValues></_>
        <_>
          <internalNodes>
            0 -1 188 2.2405412048101425e-02</internalNodes>
          <leafValues>
            -1.3855096697807312e-01 7.1212333440780640e-01</leafValues></_>
        <_>
          <internalNodes>
            0 -1 25 1.0466388630447909e-04</internalNodes>
          <leafValues>
            -4.0396863222122192e-01 2.6512458920478821e-01</leafValues></_>
        <_>
          <internalNodes>
            0 -1 12 -8.1514776684343815e-04</internalNodes>
          <leafValues>
            -6.4703702926635742e-01 1.4315594732761383e-01</leafValues></_>
        <_>
          <internalNodes>
            0 -1 191 -2.0494665950536728e-03</internalNodes>
          <leafValues>
            3.3829161524772644e-01 -2.9864051938056946e-01</leafValues></_>
        <_>
          <internalNodes>
            0 -1 207 -1.1958817020058632e-02</internalNodes>
          <leafValues>
            -8.6602604389190674e-01 1.1206288635730743e-01</leafValues></_></weakClassifiers></_>
    <!-- stage 9 -->
    <_>
      <maxWeakCount>17</maxWeakCount>
      <stageThreshold>-1.2707231044769287e+00</stageThreshold>
      <weakClassifiers>
        <_>
          <internalNodes>
            0 -1 87 -6.5841324627399445e-02</internalNodes>
          <leafValues>
            4.2553190141916275e-02 -6.3669067621231079e-01</leafValues></_>
        <_>
          <internalNodes>
            0 -1 48 -1.4297665655612946e-01</internalNodes>
          <leafValues>
            1.7229735851287842e-01 -4.2483663558959961e-01</leafValues></_>
        <_>
          <internalNodes>
            0 -1 208 -1.3956379843875766e-03</internalNodes>
          <leafValues>
            -9.6580392122268677e-01 7.8424893319606781e-02</leafValues></_>
        <_>
          <internalNodes>
            0 -1 121 3.7558794021606445e-02</internalNodes>
          <leafValues>
            -1.1558961868286133e-01 6.9856089353561401e-01</leafValues></_>
        <_>
          <internalNodes>
            0 -1 167 4.7115605324506760e-02</internalNodes>
          <leafValues>
            -1.8708395957946777e-01 4.5468628406524658e-01</leafValues></_>
        <_>
          <internalNodes>
            0 -1 103 1.4485103078186512e-02</internalNodes>
          <leafValues>
            -1.9092959165573120e-01 4.7595462203025818e-01</leafValues></_>
        <_>
          <internalNodes>
            0 -1 72 -2.0265737548470497e-03</internalNodes>
          <leafValues>
            3.4035605192184448e-01 -2.3088800907135010e-01</leafValues></_>
        <_>
          <internalNodes>
            0 -1 58 4.3388269841670990e-03</internalNodes>
          <leafValues>
            1.2227718532085419e-01 -7.5983566045761108e-01</leafValues></_>
        <_>
          <internalNodes>
            0 -1 69 2.3656147532165051e-03</internalNodes>
          <leafValues>
            -2.3793137073516846e-01 3.9315238595008850e-01</leafValues></_>
        <_>
          <internalNodes>
            0 -1 77 -2.8642863035202026e-02</internalNodes>
          <leafValues>
            3.6240425705909729e-01 -2.3461937904357910e-01</leafValues></_>
        <_>
          <internalNodes>
            0 -1 68 1.0481568460818380e-04</internalNodes>
          <leafValues>
            -3.1796848773956299e-01 2.9314753413200378e-01</leafValues></_>
        <_>
          <internalNodes>
            0 -1 106 -3.6852061748504639e-03</internalNodes>
          <leafValues>
            1.9396102428436279e-01 -4.1289007663726807e-01</leafValues></_>
        <_>
          <internalNodes>
            0 -1 30 -6.3775829039514065e-04</internalNodes>
          <leafValues>
            -7.6195746660232544e-01 1.1786594986915588e-01</leafValues></_>
        <_>
          <internalNodes>
            0 -1 203 -1.3991424930281937e-04</internalNodes>
          <leafValues>
            2.1696051955223083e-01 -3.8057914376258850e-01</leafValues></_>
        <_>
          <internalNodes>
            0 -1 210 -1.3088441919535398e-03</internalNodes>
          <leafValues>
            -8.2736480236053467e-01 9.3274950981140137e-02</leafValues></_>
        <_>
          <internalNodes>
            0 -1 183 -2.4774468038231134e-03</internalNodes>
          <leafValues>
            4.2299377918243408e-01 -2.1704940497875214e-01</leafValues></_>
        <_>
          <internalNodes>
            0 -1 1 -4.1096145287156105e-03</internalNodes>
          <leafValues>
            -8.4088629484176636e-01 9.9216654896736145e-02</leafValues></_></weakClassifiers></_>
    <!-- stage 10 -->
    <_>
      <maxWeakCount>19</maxWeakCount>
      <stageThreshold>-1.3673046827316284e+00</stageThreshold>
      <weakClassifiers>
        <_>
          <internalNodes>
            0 -1 15 -6.5812081098556519e-02</internalNodes>
          <leafValues>
            1.8461538851261139e-01 -6.1880344152450562e-01</leafValues></_>
        <_>
          <internalNodes>
            0 -1 80 -2.7140615507960320e-02</internalNodes>
          <leafValues>
            1.0803455859422684e-01 -5.6548017263412476e-01</leafValues></_>
        <_>
          <internalNodes>
            0 -1 45 2.6033560279756784e-03</internalNodes>
          <leafValues>
            9.4201594591140747e-02 -8.0926853418350220e-01</leafValues></_>
        <_>
          <internalNodes>
            0 -1 192 -1.8693929305300117e-03</internalNodes>
          <leafValues>
            3.4295514225959778e-01 -2.5091180205345154e-01</leafValues></_>
        <_>
          <internalNodes>
            0 -1 172 -9.5429718494415283e-03</internalNodes>
          <leafValues>
            5.2428764104843140e-01 -1.8534992635250092e-01</leafValues></_>
        <_>
          <internalNodes>
            0 -1 157 -2.1212468855082989e-03</internalNodes>
          <leafValues>
            -6.9768279790878296e-01 1.3132479786872864e-01</leafValues></_>
        <_>
          <internalNodes>
            0 -1 29 2.2827703505754471e-03</internalNodes>
          <leafValues>
            -2.2241017222404480e-01 3.5247531533241272e-01</leafValues></_>
        <_>
          <internalNodes>
            0 -1 35 1.5392018249258399e-03</internalNodes>
          <leafValues>
            9.8611742258071899e-02 -7.5611776113510132e-01</leafValues></_>
        <_>
          <internalNodes>
            0 -1 70 1.8130932003259659e-03</internalNodes>
          <leafValues>
            -2.7389034628868103e-01 2.9300236701965332e-01</leafValues></_>
        <_>
          <internalNodes>
            0 -1 144 -6.2475679442286491e-03</internalNodes>
          <leafValues>
            2.5293043255805969e-01 -3.2144802808761597e-01</leafValues></_>
        <_>
          <internalNodes>
            0 -1 143 -1.0063488036394119e-02</internalNodes>
          <leafValues>
            -7.5283628702163696e-01 1.1667743325233459e-01</leafValues></_>
        <_>
          <internalNodes>
            0 -1 52 -6.5759033896028996e-04</internalNodes>
          <leafValues>
            -4.3365043401718140e-01 1.4946107566356659e-01</leafValues></_>
        <_>
          <internalNodes>
            0 -1 104 5.3925991058349609e-02</internalNodes>
          <leafValues>
            -1.7022953927516937e-01 5.4466146230697632e-01</leafValues></_>
        <_>
          <internalNodes>
            0 -1 108 1.1286381632089615e-02</internalNodes>
          <leafValues>
            -1.6317313909530640e-01 5.3304648399353027e-01</leafValues></_>
        <_>
          <internalNodes>
            0 -1 67 1.1154398322105408e-02</internalNodes>
          <leafValues>
            1.5319931507110596e-01 -6.2202525138854980e-01</leafValues></_>
        <_>
          <internalNodes>
            0 -1 9 -4.6503752470016479e-02</internalNodes>
          <leafValues>
            4.7230246663093567e-01 -1.8454775214195251e-01</leafValues></_>
        <_>
          <internalNodes>
            0 -1 160 3.4583642263896763e-04</internalNodes>
          <leafValues>
            -3.7522050738334656e-01 2.3596292734146118e-01</leafValues></_>
        <_>
          <internalNodes>
            0 -1 92 -1.7955483868718147e-02</internalNodes>
          <leafValues>
            4.2951077222824097e-01 -2.1646970510482788e-01</leafValues></_>
        <_>
          <internalNodes>
            0 -1 38 -1.2179417535662651e-02</internalNodes>
          <leafValues>
            3.8759642839431763e-01 -2.4849884212017059e-01</leafValues></_></weakClassifiers></_>
    <!-- stage 11 -->
    <_>
      <maxWeakCount>18</maxWeakCount>
      <stageThreshold>-1.3933197259902954e+00</stageThreshold>
      <weakClassifiers>
        <_>
          <internalNodes>
            0 -1 99 -2.6599881239235401e-03</internalNodes>
          <leafValues>
            -2.2897195816040039e-01 -6.9036698341369629e-01</leafValues></_>
        <_>
          <internalNodes>
            0 -1 28 5.3374450653791428e-03</internalNodes>
          <leafValues>
            1.6072312369942665e-02 -8.5683524608612061e-01</leafValues></_>
        <_>
          <internalNodes>
            0 -1 222 2.0172186195850372e-03</internalNodes>
          <leafValues>
            1.0982159525156021e-01 -8.0148082971572876e-01</leafValues></_>
        <_>
          <internalNodes>
            0 -1 186 -1.1992128565907478e-03</internalNodes>
          <leafValues>
            -6.8259519338607788e-01 8.4470897912979126e-02</leafValues></_>
        <_>
          <internalNodes>
            0 -1 82 -4.7712130472064018e-03</internalNodes>
          <leafValues>
            3.8567695021629333e-01 -2.0513811707496643e-01</leafValues></_>
        <_>
          <internalNodes>
            0 -1 165 3.3886441960930824e-03</internalNodes>
          <leafValues>
            1.1202225834131241e-01 -6.4634668827056885e-01</leafValues></_>
        <_>
          <internalNodes>
            0 -1 129 -9.2124808579683304e-03</internalNodes>
          <leafValues>
            -6.9778007268905640e-01 1.1739182472229004e-01</leafValues></_>
        <_>
          <internalNodes>
            0 -1 51 4.0168017148971558e-03</internalNodes>
          <leafValues>
            -4.1152879595756531e-01 2.0770415663719177e-01</leafValues></_>
        <_>
          <internalNodes>
            0 -1 89 -1.0081614367663860e-02</internalNodes>
          <leafValues>
            4.5748814940452576e-01 -2.0096428692340851e-01</leafValues></_>
        <_>
          <internalNodes>
            0 -1 110 -1.8720321357250214e-02</internalNodes>
          <leafValues>
            5.8183068037033081e-01 -1.3599139451980591e-01</leafValues></_>
        <_>
          <internalNodes>
            0 -1 98 -1.7973061650991440e-02</internalNodes>
          <leafValues>
            6.2159502506256104e-01 -1.1716908961534500e-01</leafValues></_>
        <_>
          <internalNodes>
            0 -1 170 1.0709679685533047e-02</internalNodes>
          <leafValues>
            -2.5926879048347473e-01 3.2505548000335693e-01</leafValues></_>
        <_>
          <internalNodes>
            0 -1 31 1.0480701457709074e-03</internalNodes>
          <leafValues>
            1.2191683799028397e-01 -6.6331833600997925e-01</leafValues></_>
        <_>
          <internalNodes>
            0 -1 200 2.5852862745523453e-02</internalNodes>
          <leafValues>
            8.1067264080047607e-02 -8.6684215068817139e-01</leafValues></_>
        <_>
          <internalNodes>
            0 -1 185 -1.8945168703794479e-03</internalNodes>
          <leafValues>
            -7.6369082927703857e-01 6.7763119935989380e-02</leafValues></_>
        <_>
          <internalNodes>
            0 -1 50 -3.6898294929414988e-03</internalNodes>
          <leafValues>
            4.3672057986259460e-01 -1.9549196958541870e-01</leafValues></_>
        <_>
          <internalNodes>
            0 -1 128 -4.8994887620210648e-03</internalNodes>
          <leafValues>
            2.3295444250106812e-01 -2.9558587074279785e-01</leafValues></_>
        <_>
          <internalNodes>
            0 -1 131 7.2887749411165714e-04</internalNodes>
          <leafValues>
            1.1226659268140793e-01 -6.8826168775558472e-01</leafValues></_></weakClassifiers></_>
    <!-- stage 12 -->
    <_>
      <maxWeakCount>24</maxWeakCount>
      <stageThreshold>-1.5920008420944214e+00</stageThreshold>
      <weakClassifiers>
        <_>
          <internalNodes>
            0 -1 120 -1.4908949844539165e-02</internalNodes>
          <leafValues>
            1.1864406615495682e-01 -6.0406088829040527e-01</leafValues></_>
        <_>
          <internalNodes>
            0 -1 66 -1.6568381339311600e-02</internalNodes>
          <leafValues>
            1.2341544032096863e-01 -4.6779605746269226e-01</leafValues></_>
        <_>
          <internalNodes>
            0 -1 102 1.2371938675642014e-02</internalNodes>
          <leafValues>
            -2.2708502411842346e-01 3.5456368327140808e-01</leafValues></_>
        <_>
          <internalNodes>
            0 -1 22 -4.2703263461589813e-02</internalNodes>
          <leafValues>
            6.9150966405868530e-01 -1.1038190126419067e-01</leafValues></_>
        <_>
          <internalNodes>
            0 -1 54 2.4003381840884686e-03</internalNodes>
          <leafValues>
            1.0913728922605515e-01 -7.4949151277542114e-01</leafValues></_>
        <_>
          <internalNodes>
            0 -1 114 -3.5220716148614883e-02</internalNodes>
          <leafValues>
            6.2569808959960938e-01 -1.1091820150613785e-01</leafValues></_>
        <_>
          <internalNodes>
            0 -1 113 -1.4322113245725632e-02</internalNodes>
          <leafValues>
            -5.9971427917480469e-01 1.2671411037445068e-01</leafValues></_>
        <_>
          <internalNodes>
            0 -1 5 1.1554524302482605e-02</internalNodes>
          <leafValues>
            -1.7394912242889404e-01 4.0744030475616455e-01</leafValues></_>
        <_>
          <internalNodes>
            0 -1 24 -4.6749040484428406e-02</internalNodes>
          <leafValues>
            -6.5145868062973022e-01 1.3285753130912781e-01</leafValues></_>
        <_>
          <internalNodes>
            0 -1 7 -7.0057986304163933e-03</internalNodes>
          <leafValues>
            -7.8198373317718506e-01 7.8557796776294708e-02</leafValues></_>
        <_>
          <internalNodes>
            0 -1 95 -5.3834245773032308e-04</internalNodes>
          <leafValues>
            4.2681404948234558e-01 -1.7578543722629547e-01</leafValues></_>
        <_>
          <internalNodes>
            0 -1 105 1.2121012434363365e-02</internalNodes>
          <leafValues>
            -1.2990759313106537e-01 5.1893901824951172e-01</leafValues></_>
        <_>
          <internalNodes>
            0 -1 101 -1.1494521750137210e-03</internalNodes>
          <leafValues>
            -9.1024655103683472e-01 8.2586325705051422e-02</leafValues></_>
        <_>
          <internalNodes>
            0 -1 37 7.2639546124264598e-04</internalNodes>
          <leafValues>
            -2.4322089552879333e-01 3.0287337303161621e-01</leafValues></_>
        <_>
          <internalNodes>
            0 -1 204 5.4594515822827816e-03</internalNodes>
          <leafValues>
            8.4728777408599854e-02 -8.1123489141464233e-01</leafValues></_>
        <_>
          <internalNodes>
            0 -1 216 -5.4425904527306557e-03</internalNodes>
          <leafValues>
            -7.5136935710906982e-01 6.7599043250083923e-02</leafValues></_>
        <_>
          <internalNodes>
            0 -1 209 -8.9373649097979069e-04</internalNodes>
          <leafValues>
            -9.1708731651306152e-01 5.6921470910310745e-02</leafValues></_>
        <_>
          <internalNodes>
            0 -1 100 3.4482222981750965e-03</internalNodes>
          <leafValues>
            -2.8035008907318115e-01 2.3296965658664703e-01</leafValues></_>
        <_>
          <internalNodes>
            0 -1 193 -9.1255118604749441e-04</internalNodes>
          <leafValues>
            3.3911758661270142e-01 -1.8468667566776276e-01</leafValues></_>
        <_>
          <internalNodes>
            0 -1 169 -6.7871781066060066e-03</internalNodes>
          <leafValues>
            4.0836772322654724e-01 -2.1480499207973480e-01</leafValues></_>
        <_>
          <internalNodes>
            0 -1 181 1.2910076417028904e-02</internalNodes>
          <leafValues>
            -1.2022527307271957e-01 5.6413137912750244e-01</leafValues></_>
        <_>
          <internalNodes>
            0 -1 59 -1.7082002758979797e-01</internalNodes>
          <leafValues>
            9.9162578582763672e-02 -7.4689817428588867e-01</leafValues></_>
        <_>
          <internalNodes>
            0 -1 57 -1.4834202826023102e-02</internalNodes>
          <leafValues>
            3.2996368408203125e-01 -2.1023963391780853e-01</leafValues></_>
        <_>
          <internalNodes>
            0 -1 62 2.5025862269103527e-03</internalNodes>
          <leafValues>
            -1.4641281962394714e-01 5.5623197555541992e-01</leafValues></_></weakClassifiers></_>
    <!-- stage 13 -->
    <_>
      <maxWeakCount>20</maxWeakCount>
      <stageThreshold>-1.1773549318313599e+00</stageThreshold>
      <weakClassifiers>
        <_>
          <internalNodes>
            0 -1 140 1.2769909575581551e-02</internalNodes>
          <leafValues>
            -6.2711864709854126e-01 -1.4285714924335480e-01</leafValues></_>
        <_>
          <internalNodes>
            0 -1 40 5.6441570632159710e-04</internalNodes>
          <leafValues>
            1.7589313909411430e-02 -6.8476510047912598e-01</leafValues></_>
        <_>
          <internalNodes>
            0 -1 49 2.3240000009536743e-03</internalNodes>
          <leafValues>
            -1.9872334599494934e-01 3.2459330558776855e-01</leafValues></_>
        <_>
          <internalNodes>
            0 -1 17 -6.5289242193102837e-03</internalNodes>
          <leafValues>
            -6.7054659128189087e-01 1.3363061845302582e-01</leafValues></_>
        <_>
          <internalNodes>
            0 -1 153 -1.0186068248003721e-03</internalNodes>
          <leafValues>
            3.5793516039848328e-01 -1.9414396584033966e-01</leafValues></_>
        <_>
          <internalNodes>
            0 -1 158 2.0190330687910318e-03</internalNodes>
          <leafValues>
            1.3410821557044983e-01 -5.5409938097000122e-01</leafValues></_>
        <_>
          <internalNodes>
            0 -1 137 3.1156803015619516e-04</internalNodes>
          <leafValues>
            -3.3491694927215576e-01 1.6521789133548737e-01</leafValues></_>
        <_>
          <internalNodes>
            0 -1 116 -1.6082988586276770e-03</internalNodes>
          <leafValues>
            4.2134267091751099e-01 -1.5507268905639648e-01</leafValues></_>
        <_>
          <internalNodes>
            0 -1 122 -1.4669978991150856e-03</internalNodes>
          <leafValues>
            3.5898512601852417e-01 -2.0934928953647614e-01</leafValues></_>
        <_>
          <internalNodes>
            0 -1 84 8.1091448664665222e-03</internalNodes>
          <leafValues>
            -1.5750324726104736e-01 4.0469467639923096e-01</leafValues></_>
        <_>
          <internalNodes>
            0 -1 65 -6.0276255011558533e-02</internalNodes>
          <leafValues>
            4.3117102980613708e-01 -1.7820635437965393e-01</leafValues></_>
        <_>
          <internalNodes>
            0 -1 190 -8.4811367560178041e-04</internalNodes>
          <leafValues>
            -5.8748751878738403e-01 1.2873235344886780e-01</leafValues></_>
        <_>
          <internalNodes>
            0 -1 60 -1.7926108837127686e-01</internalNodes>
          <leafValues>
            2.1156179904937744e-01 -3.1156513094902039e-01</leafValues></_>
        <_>
          <internalNodes>
            0 -1 46 -1.7970296321436763e-03</internalNodes>
          <leafValues>
            -6.9100332260131836e-01 8.5861206054687500e-02</leafValues></_>
        <_>
          <internalNodes>
            0 -1 4 1.3859120197594166e-02</internalNodes>
          <leafValues>
            1.1779836565256119e-01 -5.1946377754211426e-01</leafValues></_>
        <_>
          <internalNodes>
            0 -1 162 -6.8499869666993618e-04</internalNodes>
          <leafValues>
            4.5893049240112305e-01 -1.5076702833175659e-01</leafValues></_>
        <_>
          <internalNodes>
            0 -1 146 -9.4874314963817596e-03</internalNodes>
          <leafValues>
            -9.5552569627761841e-01 7.9904645681381226e-02</leafValues></_>
        <_>
          <internalNodes>
            0 -1 33 -5.0409126561135054e-04</internalNodes>
          <leafValues>
            2.2801248729228973e-01 -2.8571990132331848e-01</leafValues></_>
        <_>
          <internalNodes>
            0 -1 40 -3.7262271507643163e-04</internalNodes>
          <leafValues>
            -5.7768017053604126e-01 1.1470972001552582e-01</leafValues></_>
        <_>
          <internalNodes>
            0 -1 18 -1.1977912858128548e-02</internalNodes>
          <leafValues>
            -5.0962418317794800e-01 1.2142468243837357e-01</leafValues></_></weakClassifiers></_>
    <!-- stage 14 -->
    <_>
      <maxWeakCount>21</maxWeakCount>
      <stageThreshold>-1.3082172870635986e+00</stageThreshold>
      <weakClassifiers>
        <_>
          <internalNodes>
            0 -1 71 -2.0657524466514587e-02</internalNodes>
          <leafValues>
            -2.2527472674846649e-01 -6.6025638580322266e-01</leafValues></_>
        <_>
          <internalNodes>
            0 -1 206 4.1547724977135658e-03</internalNodes>
          <leafValues>
            -2.9740033205598593e-03 -8.3866930007934570e-01</leafValues></_>
        <_>
          <internalNodes>
            0 -1 112 -3.4729260951280594e-02</internalNodes>
          <leafValues>
            -8.1361436843872070e-01 1.0546698421239853e-01</leafValues></_>
        <_>
          <internalNodes>
            0 -1 184 -9.0347314253449440e-03</internalNodes>
          <leafValues>
            3.9006909728050232e-01 -1.7066267132759094e-01</leafValues></_>
        <_>
          <internalNodes>
            0 -1 43 1.6590703744441271e-03</internalNodes>
          <leafValues>
            1.1991058290004730e-01 -5.7763499021530151e-01</leafValues></_>
        <_>
          <internalNodes>
            0 -1 94 -2.6112208142876625e-03</internalNodes>
          <leafValues>
            1.8498960137367249e-01 -3.2699784636497498e-01</leafValues></_>
        <_>
          <internalNodes>
            0 -1 34 -1.1814406141638756e-02</internalNodes>
          <leafValues>
            -7.2663509845733643e-01 9.0117417275905609e-02</leafValues></_>
        <_>
          <internalNodes>
            0 -1 73 -2.0907404832541943e-03</internalNodes>
          <leafValues>
            3.1753218173980713e-01 -2.1182741224765778e-01</leafValues></_>
        <_>
          <internalNodes>
            0 -1 174 -4.1690636426210403e-03</internalNodes>
          <leafValues>
            -7.4062567949295044e-01 8.2142755389213562e-02</leafValues></_>
        <_>
          <internalNodes>
            0 -1 42 -1.4860630966722965e-02</internalNodes>
          <leafValues>
            -6.4660143852233887e-01 8.6691036820411682e-02</leafValues></_>
        <_>
          <internalNodes>
            0 -1 76 -6.9818675518035889e-02</internalNodes>
          <leafValues>
            5.5953139066696167e-01 -1.4668439328670502e-01</leafValues></_>
        <_>
          <internalNodes>
            0 -1 26 -4.0381634607911110e-03</internalNodes>
          <leafValues>
            3.6898577213287354e-01 -2.0309093594551086e-01</leafValues></_>
        <_>
          <internalNodes>
            0 -1 189 -1.3571460731327534e-03</internalNodes>
          <leafValues>
            3.6871573328971863e-01 -1.7125527560710907e-01</leafValues></_>
        <_>
          <internalNodes>
            0 -1 202 -3.3884198637679219e-04</internalNodes>
          <leafValues>
            2.3978435993194580e-01 -2.7527394890785217e-01</leafValues></_>
        <_>
          <internalNodes>
            0 -1 215 -2.1919924765825272e-03</internalNodes>
          <leafValues>
            -4.9484577775001526e-01 1.2502507865428925e-01</leafValues></_>
        <_>
          <internalNodes>
            0 -1 166 -7.1209907531738281e-02</internalNodes>
          <leafValues>
            4.7702458500862122e-01 -1.4718380570411682e-01</leafValues></_>
        <_>
          <internalNodes>
            0 -1 138 -3.5073077306151390e-03</internalNodes>
          <leafValues>
            3.5701629519462585e-01 -1.7485894262790680e-01</leafValues></_>
        <_>
          <internalNodes>
            0 -1 14 -4.9974944442510605e-02</internalNodes>
          <leafValues>
            3.5523167252540588e-01 -1.7889674007892609e-01</leafValues></_>
        <_>
          <internalNodes>
            0 -1 150 -4.6486567589454353e-04</internalNodes>
          <leafValues>
            4.5519328117370605e-01 -1.3160477578639984e-01</leafValues></_>
        <_>
          <internalNodes>
            0 -1 96 1.7374949529767036e-03</internalNodes>
          <leafValues>
            -2.0680339634418488e-01 3.2366576790809631e-01</leafValues></_>
        <_>
          <internalNodes>
            0 -1 161 6.6150288330391049e-04</internalNodes>
          <leafValues>
            1.0835484415292740e-01 -6.1004787683486938e-01</leafValues></_></weakClassifiers></_>
    <!-- stage 15 -->
    <_>
      <maxWeakCount>20</maxWeakCount>
      <stageThreshold>-1.3078560829162598e+00</stageThreshold>
      <weakClassifiers>
        <_>
          <internalNodes>
            0 -1 32 -4.7174040228128433e-03</internalNodes>
          <leafValues>
            -3.4525448083877563e-01 -7.8359508514404297e-01</leafValues></_>
        <_>
          <internalNodes>
            0 -1 221 2.6287045329809189e-03</internalNodes>
          <leafValues>
            1.9596973434090614e-02 -7.8560149669647217e-01</leafValues></_>
        <_>
          <internalNodes>
            0 -1 176 -6.6499118693172932e-03</internalNodes>
          <leafValues>
            4.1787213087081909e-01 -1.4439849555492401e-01</leafValues></_>
        <_>
          <internalNodes>
            0 -1 195 -1.4407000271603465e-03</internalNodes>
          <leafValues>
            -7.2682881355285645e-01 7.5586266815662384e-02</leafValues></_>
        <_>
          <internalNodes>
            0 -1 142 -3.5176076926290989e-03</internalNodes>
          <leafValues>
            1.8656136095523834e-01 -3.3797183632850647e-01</leafValues></_>
        <_>
          <internalNodes>
            0 -1 214 -3.4553448203951120e-03</internalNodes>
          <leafValues>
            -5.9116303920745850e-01 1.1054321378469467e-01</leafValues></_>
        <_>
          <internalNodes>
            0 -1 147 5.3763287141919136e-03</internalNodes>
          <leafValues>
            7.8545525670051575e-02 -7.3357897996902466e-01</leafValues></_>
        <_>
          <internalNodes>
            0 -1 41 -5.1116887480020523e-03</internalNodes>
          <leafValues>
            -3.7446939945220947e-01 1.6207008063793182e-01</leafValues></_>
        <_>
          <internalNodes>
            0 -1 159 1.0715587064623833e-02</internalNodes>
          <leafValues>
            -2.0184901356697083e-01 3.2425352931022644e-01</leafValues></_>
        <_>
          <internalNodes>
            0 -1 139 -1.9118848722428083e-03</internalNodes>
          <leafValues>
            5.2906769514083862e-01 -1.3085420429706573e-01</leafValues></_>
        <_>
          <internalNodes>
            0 -1 8 -7.6102181337773800e-03</internalNodes>
          <leafValues>
            -9.5659166574478149e-01 7.4111931025981903e-02</leafValues></_>
        <_>
          <internalNodes>
            0 -1 180 -1.0057180188596249e-03</internalNodes>
          <leafValues>
            4.2998287081718445e-01 -1.6943900287151337e-01</leafValues></_>
        <_>
          <internalNodes>
            0 -1 64 1.5216076746582985e-02</internalNodes>
          <leafValues>
            -1.8174824118614197e-01 4.0233245491981506e-01</leafValues></_>
        <_>
          <internalNodes>
            0 -1 27 -6.9164526648819447e-03</internalNodes>
          <leafValues>
            4.9561882019042969e-01 -1.5123908221721649e-01</leafValues></_>
        <_>
          <internalNodes>
            0 -1 164 -3.7524232175201178e-03</internalNodes>
          <leafValues>
            -9.5363211631774902e-01 8.1867851316928864e-02</leafValues></_>
        <_>
          <internalNodes>
            0 -1 194 1.9807061180472374e-03</internalNodes>
          <leafValues>
            -1.8351924419403076e-01 3.8982251286506653e-01</leafValues></_>
        <_>
          <internalNodes>
            0 -1 78 -6.7993417382240295e-02</internalNodes>
          <leafValues>
            8.0585503578186035e-01 -8.2802183926105499e-02</leafValues></_>
        <_>
          <internalNodes>
            0 -1 151 -3.7124560913071036e-04</internalNodes>
          <leafValues>
            3.8515561819076538e-01 -1.7763952910900116e-01</leafValues></_>
        <_>
          <internalNodes>
            0 -1 145 2.0575758535414934e-03</internalNodes>
          <leafValues>
            -1.5408873558044434e-01 5.0862139463424683e-01</leafValues></_>
        <_>
          <internalNodes>
            0 -1 125 -1.9139599753543735e-03</internalNodes>
          <leafValues>
            1.1279792338609695e-01 -6.7104625701904297e-01</leafValues></_></weakClassifiers></_></stages>
  <features>
    <_>
      <rects>
        <_>
          0 0 1 6 -1.</_>
        <_>
          0 3 1 3 2.</_></rects>
      <tilted>0</tilted></_>
    <_>
      <rects>
        <_>
          0 0 1 9 -1.</_>
        <_>
          0 3 1 3 3.</_></rects>
      <tilted>0</tilted></_>
    <_>
      <rects>
        <_>
          0 0 4 1 -1.</_>
        <_>
          2 0 2 1 2.</_></rects>
      <tilted>0</tilted></_>
    <_>
      <rects>
        <_>
          0 0 2 4 -1.</_>
        <_>
          0 2 2 2 2.</_></rects>
      <tilted>0</tilted></_>
    <_>
      <rects>
        <_>
          0 0 8 3 -1.</_>
        <_>
          4 0 4 3 2.</_></rects>
      <tilted>0</tilted></_>
    <_>
      <rects>
        <_>
          0 0 8 8 -1.</_>
        <_>
          0 0 4 4 2.</_>
        <_>
          4 4 4 4 2.</_></rects>
      <tilted>0</tilted></_>
    <_>
      <rects>
        <_>
          0 0 8 16 -1.</_>
        <_>
          0 0 4 8 2.</_>
        <_>
          4 8 4 8 2.</_></rects>
      <tilted>0</tilted></_>
    <_>
      <rects>
        <_>
          0 1 1 12 -1.</_>
        <_>
          0 5 1 4 3.</_></rects>
      <tilted>0</tilted></_>
    <_>
      <rects>
        <_>
          0 1 3 10 -1.</_>
        <_>
          1 1 1 10 3.</_></rects>
      <tilted>0</tilted></_>
    <_>
      <rects>
        <_>
          0 1 9 21 -1.</_>
        <_>
          3 1 3 21 3.</_></rects>
      <tilted>0</tilted></_>
    <_>
      <rects>
        <_>
          0 1 10 16 -1.</_>
        <_>
          0 1 5 8 2.</_>
        <_>
          5 9 5 8 2.</_></rects>
      <tilted>0</tilted></_>
    <_>
      <rects>
        <_>
          0 1 16 6 -1.</_>
        <_>
          0 1 8 3 2.</_>
        <_>
          8 4 8 3 2.</_></rects>
      <tilted>0</tilted></_>
    <_>
      <rects>
        <_>
          0 2 4 1 -1.</_>
        <_>
          2 2 2 1 2.</_></rects>
      <tilted>0</tilted></_>
    <_>
      <rects>
        <_>
          0 3 2 10 -1.</_>
        <_>
          1 3 1 10 2.</_></rects>
      <tilted>0</tilted></_>
    <_>
      <rects>
        <_>
          0 3 18 10 -1.</_>
        <_>
          6 3 6 10 3.</_></rects>
      <tilted>0</tilted></_>
    <_>
      <rects>
        <_>
          0 4 6 12 -1.</_>
        <_>
          3 4 3 12 2.</_></rects>
      <tilted>0</tilted></_>
    <_>
      <rects>
        <_>
          0 5 2 3 -1.</_>
        <_>
          1 5 1 3 2.</_></rects>
      <tilted>0</tilted></_>
    <_>
      <rects>
        <_>
          0 5 1 12 -1.</_>
        <_>
          0 9 1 4 3.</_></rects>
      <tilted>0</tilted></_>
    <_>
      <rects>
        <_>
          0 5 1 16 -1.</_>
        <_>
          0 13 1 8 2.</_></rects>
      <tilted>0</tilted></_>
    <_>
      <rects>
        <_>
          0 5 8 11 -1.</_>
        <_>
          4 5 4 11 2.</_></rects>
      <tilted>0</tilted></_>
    <_>
      <rects>
        <_>
          0 6 1 6 -1.</_>
        <_>
          0 8 1 2 3.</_></rects>
      <tilted>0</tilted></_>
    <_>
      <rects>
        <_>
          0 7 6 8 -1.</_>
        <_>
          3 7 3 8 2.</_></rects>
      <tilted>0</tilted></_>
    <_>
      <rects>
        <_>
          0 7 6 16 -1.</_>
        <_>
          0 7 3 8 2.</_>
        <_>
          3 15 3 8 2.</_></rects>
      <tilted>0</tilted></_>
    <_>
      <rects>
        <_>
          0 9 24 13 -1.</_>
        <_>
          8 9 8 13 3.</_></rects>
      <tilted>0</tilted></_>
    <_>
      <rects>
        <_>
          0 9 14 9 -1.</_>
        <_>
          0 12 14 3 3.</_></rects>
      <tilted>0</tilted></_>
    <_>
      <rects>
        <_>
          0 10 2 6 -1.</_>
        <_>
          1 10 1 6 2.</_></rects>
      <tilted>0</tilted></_>
    <_>
      <rects>
        <_>
          0 10 4 10 -1.</_>
        <_>
          0 10 2 5 2.</_>
        <_>
          2 15 2 5 2.</_></rects>
      <tilted>0</tilted></_>
    <_>
      <rects>
        <_>
          0 10 6 9 -1.</_>
        <_>
          2 10 2 9 3.</_></rects>
      <tilted>0</tilted></_>
    <_>
      <rects>
        <_>
          0 12 22 2 -1.</_>
        <_>
          0 13 22 1 2.</_></rects>
      <tilted>0</tilted></_>
    <_>
      <rects>
        <_>
          0 13 4 6 -1.</_>
        <_>
          2 13 2 6 2.</_></rects>
      <tilted>0</tilted></_>
    <_>
      <rects>
        <_>
          0 14 2 2 -1.</_>
        <_>
          0 14 1 1 2.</_>
        <_>
          1 15 1 1 2.</_></rects>
      <tilted>0</tilted></_>
    <_>
      <rects>
        <_>
          0 15 1 4 -1.</_>
        <_>
          0 17 1 2 2.</_></rects>
      <tilted>0</tilted></_>
    <_>
      <rects>
        <_>
          0 15 10 8 -1.</_>
        <_>
          5 15 5 8 2.</_></rects>
      <tilted>0</tilted></_>
    <_>
      <rects>
        <_>
          0 16 4 6 -1.</_>
        <_>
          0 16 2 3 2.</_>
        <_>
          2 19 2 3 2.</_></rects>
      <tilted>0</tilted></_>
    <_>
      <rects>
        <_>
          0 16 2 8 -1.</_>
        <_>
          0 20 2 4 2.</_></rects>
      <tilted>0</tilted></_>
    <_>
      <rects>
        <_>
          0 17 1 4 -1.</_>
        <_>
          0 19 1 2 2.</_></rects>
      <tilted>0</tilted></_>
    <_>
      <rects>
        <_>
          0 18 24 6 -1.</_>
        <_>
          0 20 24 2 3.</_></rects>
      <tilted>0</tilted></_>
    <_>
      <rects>
        <_>
          0 19 6 2 -1.</_>
        <_>
          3 19 3 2 2.</_></rects>
      <tilted>0</tilted></_>
    <_>
      <rects>
        <_>
          0 20 15 3 -1.</_>
        <_>
          5 20 5 3 3.</_></rects>
      <tilted>0</tilted></_>
    <_>
      <rects>
        <_>
          0 22 20 2 -1.</_>
        <_>
          0 23 20 1 2.</_></rects>
      <tilted>0</tilted></_>
    <_>
      <rects>
        <_>
          0 23 2 1 -1.</_>
        <_>
          1 23 1 1 2.</_></rects>
      <tilted>0</tilted></_>
    <_>
      <rects>
        <_>
          0 23 24 1 -1.</_>
        <_>
          8 23 8 1 3.</_></rects>
      <tilted>0</tilted></_>
    <_>
      <rects>
        <_>
          0 23 24 1 -1.</_>
        <_>
          12 23 12 1 2.</_></rects>
      <tilted>0</tilted></_>
    <_>
      <rects>
        <_>
          1 0 6 1 -1.</_>
        <_>
          3 0 2 1 3.</_></rects>
      <tilted>0</tilted></_>
    <_>
      <rects>
        <_>
          1 0 3 3 -1.</_>
        <_>
          1 1 3 1 3.</_></rects>
      <tilted>0</tilted></_>
    <_>
      <rects>
        <_>
          1 1 1 6 -1.</_>
        <_>
          1 3 1 2 3.</_></rects>
      <tilted>0</tilted></_>
    <_>
      <rects>
        <_>
          1 1 8 1 -1.</_>
        <_>
          5 1 4 1 2.</_></rects>
      <tilted>0</tilted></_>
    <_>
      <rects>
        <_>
          1 4 4 12 -1.</_>
        <_>
          3 4 2 12 2.</_></rects>
      <tilted>0</tilted></_>
    <_>
      <rects>
        <_>
          1 4 11 18 -1.</_>
        <_>
          1 13 11 9 2.</_></rects>
      <tilted>0</tilted></_>
    <_>
      <rects>
        <_>
          1 10 3 5 -1.</_>
        <_>
          2 10 1 5 3.</_></rects>
      <tilted>0</tilted></_>
    <_>
      <rects>
        <_>
          1 13 6 2 -1.</_>
        <_>
          3 13 2 2 3.</_></rects>
      <tilted>0</tilted></_>
    <_>
      <rects>
        <_>
          1 20 15 4 -1.</_>
        <_>
          1 22 15 2 2.</_></rects>
      <tilted>0</tilted></_>
    <_>
      <rects>
        <_>
          1 23 4 1 -1.</_>
        <_>
          3 23 2 1 2.</_></rects>
      <tilted>0</tilted></_>
    <_>
      <rects>
        <_>
          1 23 6 1 -1.</_>
        <_>
          3 23 2 1 3.</_></rects>
      <tilted>0</tilted></_>
    <_>
      <rects>
        <_>
          1 23 6 1 -1.</_>
        <_>
          4 23 3 1 2.</_></rects>
      <tilted>0</tilted></_>
    <_>
      <rects>
        <_>
          2 0 2 2 -1.</_>
        <_>
          2 1 2 1 2.</_></rects>
      <tilted>0</tilted></_>
    <_>
      <rects>
        <_>
          2 0 4 2 -1.</_>
        <_>
          4 0 2 2 2.</_></rects>
      <tilted>0</tilted></_>
    <_>
      <rects>
        <_>
          2 0 6 14 -1.</_>
        <_>
          4 0 2 14 3.</_></rects>
      <tilted>0</tilted></_>
    <_>
      <rects>
        <_>
          2 0 6 1 -1.</_>
        <_>
          5 0 3 1 2.</_></rects>
      <tilted>0</tilted></_>
    <_>
      <rects>
        <_>
          2 0 20 22 -1.</_>
        <_>
          2 11 20 11 2.</_></rects>
      <tilted>0</tilted></_>
    <_>
      <rects>
        <_>
          2 2 10 20 -1.</_>
        <_>
          2 12 10 10 2.</_></rects>
      <tilted>0</tilted></_>
    <_>
      <rects>
        <_>
          2 3 18 20 -1.</_>
        <_>
          2 13 18 10 2.</_></rects>
      <tilted>0</tilted></_>
    <_>
      <rects>
        <_>
          2 9 2 6 -1.</_>
        <_>
          3 9 1 6 2.</_></rects>
      <tilted>0</tilted></_>
    <_>
      <rects>
        <_>
          2 9 4 7 -1.</_>
        <_>
          4 9 2 7 2.</_></rects>
      <tilted>0</tilted></_>
    <_>
      <rects>
        <_>
          2 10 4 14 -1.</_>
        <_>
          2 10 2 7 2.</_>
        <_>
          4 17 2 7 2.</_></rects>
      <tilted>0</tilted></_>
    <_>
      <rects>
        <_>
          2 12 16 10 -1.</_>
        <_>
          2 12 8 5 2.</_>
        <_>
          10 17 8 5 2.</_></rects>
      <tilted>0</tilted></_>
    <_>
      <rects>
        <_>
          2 16 18 4 -1.</_>
        <_>
          8 16 6 4 3.</_></rects>
      <tilted>0</tilted></_>
    <_>
      <rects>
        <_>
          2 23 20 1 -1.</_>
        <_>
          12 23 10 1 2.</_></rects>
      <tilted>0</tilted></_>
    <_>
      <rects>
        <_>
          3 2 1 4 -1.</_>
        <_>
          3 4 1 2 2.</_></rects>
      <tilted>0</tilted></_>
    <_>
      <rects>
        <_>
          3 3 2 10 -1.</_>
        <_>
          4 3 1 10 2.</_></rects>
      <tilted>0</tilted></_>
    <_>
      <rects>
        <_>
          3 3 4 3 -1.</_>
        <_>
          5 3 2 3 2.</_></rects>
      <tilted>0</tilted></_>
    <_>
      <rects>
        <_>
          3 3 6 6 -1.</_>
        <_>
          3 6 6 3 2.</_></rects>
      <tilted>0</tilted></_>
    <_>
      <rects>
        <_>
          3 4 3 10 -1.</_>
        <_>
          4 4 1 10 3.</_></rects>
      <tilted>0</tilted></_>
    <_>
      <rects>
        <_>
          3 13 4 4 -1.</_>
        <_>
          3 13 2 2 2.</_>
        <_>
          5 15 2 2 2.</_></rects>
      <tilted>0</tilted></_>
    <_>
      <rects>
        <_>
          3 16 1 4 -1.</_>
        <_>
          3 18 1 2 2.</_></rects>
      <tilted>0</tilted></_>
    <_>
      <rects>
        <_>
          3 17 18 3 -1.</_>
        <_>
          9 17 6 3 3.</_></rects>
      <tilted>0</tilted></_>
    <_>
      <rects>
        <_>
          3 18 16 5 -1.</_>
        <_>
          11 18 8 5 2.</_></rects>
      <tilted>0</tilted></_>
    <_>
      <rects>
        <_>
          4 1 4 10 -1.</_>
        <_>
          4 6 4 5 2.</_></rects>
      <tilted>0</tilted></_>
    <_>
      <rects>
        <_>
          4 1 14 8 -1.</_>
        <_>
          4 1 7 4 2.</_>
        <_>
          11 5 7 4 2.</_></rects>
      <tilted>0</tilted></_>
    <_>
      <rects>
        <_>
          4 3 14 20 -1.</_>
        <_>
          4 13 14 10 2.</_></rects>
      <tilted>0</tilted></_>
    <_>
      <rects>
        <_>
          4 6 17 6 -1.</_>
        <_>
          4 9 17 3 2.</_></rects>
      <tilted>0</tilted></_>
    <_>
      <rects>
        <_>
          4 7 17 6 -1.</_>
        <_>
          4 10 17 3 2.</_></rects>
      <tilted>0</tilted></_>
    <_>
      <rects>
        <_>
          4 14 6 4 -1.</_>
        <_>
          6 14 2 4 3.</_></rects>
      <tilted>0</tilted></_>
    <_>
      <rects>
        <_>
          4 14 14 8 -1.</_>
        <_>
          4 14 7 4 2.</_>
        <_>
          11 18 7 4 2.</_></rects>
      <tilted>0</tilted></_>
    <_>
      <rects>
        <_>
          4 18 16 4 -1.</_>
        <_>
          4 18 8 2 2.</_>
        <_>
          12 20 8 2 2.</_></rects>
      <tilted>0</tilted></_>
    <_>
      <rects>
        <_>
          4 19 12 3 -1.</_>
        <_>
          10 19 6 3 2.</_></rects>
      <tilted>0</tilted></_>
    <_>
      <rects>
        <_>
          4 21 3 3 -1.</_>
        <_>
          5 21 1 3 3.</_></rects>
      <tilted>0</tilted></_>
    <_>
      <rects>
        <_>
          5 0 2 24 -1.</_>
        <_>
          5 8 2 8 3.</_></rects>
      <tilted>0</tilted></_>
    <_>
      <rects>
        <_>
          5 0 10 8 -1.</_>
        <_>
          5 0 5 4 2.</_>
        <_>
          10 4 5 4 2.</_></rects>
      <tilted>0</tilted></_>
    <_>
      <rects>
        <_>
          5 0 14 4 -1.</_>
        <_>
          5 0 7 2 2.</_>
        <_>
          12 2 7 2 2.</_></rects>
      <tilted>0</tilted></_>
    <_>
      <rects>
        <_>
          5 0 11 18 -1.</_>
        <_>
          5 9 11 9 2.</_></rects>
      <tilted>0</tilted></_>
    <_>
      <rects>
        <_>
          5 0 12 20 -1.</_>
        <_>
          5 10 12 10 2.</_></rects>
      <tilted>0</tilted></_>
    <_>
      <rects>
        <_>
          5 2 5 6 -1.</_>
        <_>
          5 5 5 3 2.</_></rects>
      <tilted>0</tilted></_>
    <_>
      <rects>
        <_>
          5 4 13 14 -1.</_>
        <_>
          5 11 13 7 2.</_></rects>
      <tilted>0</tilted></_>
    <_>
      <rects>
        <_>
          5 8 3 4 -1.</_>
        <_>
          5 10 3 2 2.</_></rects>
      <tilted>0</tilted></_>
    <_>
      <rects>
        <_>
          5 15 2 2 -1.</_>
        <_>
          5 15 1 1 2.</_>
        <_>
          6 16 1 1 2.</_></rects>
      <tilted>0</tilted></_>
    <_>
      <rects>
        <_>
          5 17 4 4 -1.</_>
        <_>
          5 17 2 2 2.</_>
        <_>
          7 19 2 2 2.</_></rects>
      <tilted>0</tilted></_>
    <_>
      <rects>
        <_>
          5 17 15 3 -1.</_>
        <_>
          10 17 5 3 3.</_></rects>
      <tilted>0</tilted></_>
    <_>
      <rects>
        <_>
          5 17 14 4 -1.</_>
        <_>
          5 17 7 2 2.</_>
        <_>
          12 19 7 2 2.</_></rects>
      <tilted>0</tilted></_>
    <_>
      <rects>
        <_>
          5 21 14 3 -1.</_>
        <_>
          5 22 14 1 3.</_></rects>
      <tilted>0</tilted></_>
    <_>
      <rects>
        <_>
          5 22 13 2 -1.</_>
        <_>
          5 23 13 1 2.</_></rects>
      <tilted>0</tilted></_>
    <_>
      <rects>
        <_>
          6 0 3 1 -1.</_>
        <_>
          7 0 1 1 3.</_></rects>
      <tilted>0</tilted></_>
    <_>
      <rects>
        <_>
          6 0 8 6 -1.</_>
        <_>
          6 0 4 3 2.</_>
        <_>
          10 3 4 3 2.</_></rects>
      <tilted>0</tilted></_>
    <_>
      <rects>
        <_>
          6 1 8 4 -1.</_>
        <_>
          10 1 4 4 2.</_></rects>
      <tilted>0</tilted></_>
    <_>
      <rects>
        <_>
          6 12 14 10 -1.</_>
        <_>
          6 12 7 5 2.</_>
        <_>
          13 17 7 5 2.</_></rects>
      <tilted>0</tilted></_>
    <_>
      <rects>
        <_>
          6 16 12 4 -1.</_>
        <_>
          6 16 6 2 2.</_>
        <_>
          12 18 6 2 2.</_></rects>
      <tilted>0</tilted></_>
    <_>
      <rects>
        <_>
          6 18 12 2 -1.</_>
        <_>
          10 18 4 2 3.</_></rects>
      <tilted>0</tilted></_>
    <_>
      <rects>
        <_>
          6 19 10 3 -1.</_>
        <_>
          11 19 5 3 2.</_></rects>
      <tilted>0</tilted></_>
    <_>
      <rects>
        <_>
          6 20 10 4 -1.</_>
        <_>
          6 20 5 2 2.</_>
        <_>
          11 22 5 2 2.</_></rects>
      <tilted>0</tilted></_>
    <_>
      <rects>
        <_>
          7 2 10 18 -1.</_>
        <_>
          7 11 10 9 2.</_></rects>
      <tilted>0</tilted></_>
    <_>
      <rects>
        <_>
          7 3 10 6 -1.</_>
        <_>
          7 3 5 3 2.</_>
        <_>
          12 6 5 3 2.</_></rects>
      <tilted>0</tilted></_>
    <_>
      <rects>
        <_>
          7 4 10 8 -1.</_>
        <_>
          7 8 10 4 2.</_></rects>
      <tilted>0</tilted></_>
    <_>
      <rects>
        <_>
          7 12 17 6 -1.</_>
        <_>
          7 14 17 2 3.</_></rects>
      <tilted>0</tilted></_>
    <_>
      <rects>
        <_>
          7 13 8 5 -1.</_>
        <_>
          11 13 4 5 2.</_></rects>
      <tilted>0</tilted></_>
    <_>
      <rects>
        <_>
          7 19 12 4 -1.</_>
        <_>
          13 19 6 4 2.</_></rects>
      <tilted>0</tilted></_>
    <_>
      <rects>
        <_>
          7 20 8 4 -1.</_>
        <_>
          7 22 8 2 2.</_></rects>
      <tilted>0</tilted></_>
    <_>
      <rects>
        <_>
          8 0 2 6 -1.</_>
        <_>
          8 2 2 2 3.</_></rects>
      <tilted>0</tilted></_>
    <_>
      <rects>
        <_>
          8 0 6 4 -1.</_>
        <_>
          8 2 6 2 2.</_></rects>
      <tilted>0</tilted></_>
    <_>
      <rects>
        <_>
          8 0 9 6 -1.</_>
        <_>
          8 3 9 3 2.</_></rects>
      <tilted>0</tilted></_>
    <_>
      <rects>
        <_>
          8 0 10 8 -1.</_>
        <_>
          8 4 10 4 2.</_></rects>
      <tilted>0</tilted></_>
    <_>
      <rects>
        <_>
          8 1 8 4 -1.</_>
        <_>
          8 3 8 2 2.</_></rects>
      <tilted>0</tilted></_>
    <_>
      <rects>
        <_>
          8 2 10 6 -1.</_>
        <_>
          8 2 5 3 2.</_>
        <_>
          13 5 5 3 2.</_></rects>
      <tilted>0</tilted></_>
    <_>
      <rects>
        <_>
          8 3 4 2 -1.</_>
        <_>
          8 4 4 1 2.</_></rects>
      <tilted>0</tilted></_>
    <_>
      <rects>
        <_>
          8 3 11 20 -1.</_>
        <_>
          8 13 11 10 2.</_></rects>
      <tilted>0</tilted></_>
    <_>
      <rects>
        <_>
          8 7 11 4 -1.</_>
        <_>
          8 9 11 2 2.</_></rects>
      <tilted>0</tilted></_>
    <_>
      <rects>
        <_>
          8 10 7 8 -1.</_>
        <_>
          8 14 7 4 2.</_></rects>
      <tilted>0</tilted></_>
    <_>
      <rects>
        <_>
          8 12 7 12 -1.</_>
        <_>
          8 16 7 4 3.</_></rects>
      <tilted>0</tilted></_>
    <_>
      <rects>
        <_>
          8 15 16 3 -1.</_>
        <_>
          8 16 16 1 3.</_></rects>
      <tilted>0</tilted></_>
    <_>
      <rects>
        <_>
          8 16 12 3 -1.</_>
        <_>
          12 16 4 3 3.</_></rects>
      <tilted>0</tilted></_>
    <_>
      <rects>
        <_>
          8 23 16 1 -1.</_>
        <_>
          16 23 8 1 2.</_></rects>
      <tilted>0</tilted></_>
    <_>
      <rects>
        <_>
          9 0 1 2 -1.</_>
        <_>
          9 1 1 1 2.</_></rects>
      <tilted>0</tilted></_>
    <_>
      <rects>
        <_>
          9 0 3 1 -1.</_>
        <_>
          10 0 1 1 3.</_></rects>
      <tilted>0</tilted></_>
    <_>
      <rects>
        <_>
          9 0 6 2 -1.</_>
        <_>
          9 1 6 1 2.</_></rects>
      <tilted>0</tilted></_>
    <_>
      <rects>
        <_>
          9 0 6 6 -1.</_>
        <_>
          9 3 6 3 2.</_></rects>
      <tilted>0</tilted></_>
    <_>
      <rects>
        <_>
          9 2 3 6 -1.</_>
        <_>
          9 5 3 3 2.</_></rects>
      <tilted>0</tilted></_>
    <_>
      <rects>
        <_>
          9 2 9 20 -1.</_>
        <_>
          9 12 9 10 2.</_></rects>
      <tilted>0</tilted></_>
    <_>
      <rects>
        <_>
          9 5 14 12 -1.</_>
        <_>
          9 9 14 4 3.</_></rects>
      <tilted>0</tilted></_>
    <_>
      <rects>
        <_>
          10 0 2 2 -1.</_>
        <_>
          10 1 2 1 2.</_></rects>
      <tilted>0</tilted></_>
    <_>
      <rects>
        <_>
          10 1 6 4 -1.</_>
        <_>
          10 1 3 2 2.</_>
        <_>
          13 3 3 2 2.</_></rects>
      <tilted>0</tilted></_>
    <_>
      <rects>
        <_>
          10 3 4 2 -1.</_>
        <_>
          10 3 2 1 2.</_>
        <_>
          12 4 2 1 2.</_></rects>
      <tilted>0</tilted></_>
    <_>
      <rects>
        <_>
          10 3 8 4 -1.</_>
        <_>
          10 3 4 2 2.</_>
        <_>
          14 5 4 2 2.</_></rects>
      <tilted>0</tilted></_>
    <_>
      <rects>
        <_>
          10 5 14 19 -1.</_>
        <_>
          17 5 7 19 2.</_></rects>
      <tilted>0</tilted></_>
    <_>
      <rects>
        <_>
          10 10 12 8 -1.</_>
        <_>
          14 10 4 8 3.</_></rects>
      <tilted>0</tilted></_>
    <_>
      <rects>
        <_>
          10 12 6 4 -1.</_>
        <_>
          13 12 3 4 2.</_></rects>
      <tilted>0</tilted></_>
    <_>
      <rects>
        <_>
          10 15 12 3 -1.</_>
        <_>
          14 15 4 3 3.</_></rects>
      <tilted>0</tilted></_>
    <_>
      <rects>
        <_>
          11 3 4 2 -1.</_>
        <_>
          11 3 2 1 2.</_>
        <_>
          13 4 2 1 2.</_></rects>
      <tilted>0</tilted></_>
    <_>
      <rects>
        <_>
          11 10 3 14 -1.</_>
        <_>
          12 10 1 14 3.</_></rects>
      <tilted>0</tilted></_>
    <_>
      <rects>
        <_>
          11 12 3 12 -1.</_>
        <_>
          12 12 1 12 3.</_></rects>
      <tilted>0</tilted></_>
    <_>
      <rects>
        <_>
          11 15 2 9 -1.</_>
        <_>
          11 18 2 3 3.</_></rects>
      <tilted>0</tilted></_>
    <_>
      <rects>
        <_>
          11 15 13 3 -1.</_>
        <_>
          11 16 13 1 3.</_></rects>
      <tilted>0</tilted></_>
    <_>
      <rects>
        <_>
          11 19 1 2 -1.</_>
        <_>
          11 20 1 1 2.</_></rects>
      <tilted>0</tilted></_>
    <_>
      <rects>
        <_>
          12 2 1 3 -1.</_>
        <_>
          12 3 1 1 3.</_></rects>
      <tilted>0</tilted></_>
    <_>
      <rects>
        <_>
          12 2 12 18 -1.</_>
        <_>
          12 2 6 9 2.</_>
        <_>
          18 11 6 9 2.</_></rects>
      <tilted>0</tilted></_>
    <_>
      <rects>
        <_>
          12 3 4 2 -1.</_>
        <_>
          12 3 2 1 2.</_>
        <_>
          14 4 2 1 2.</_></rects>
      <tilted>0</tilted></_>
    <_>
      <rects>
        <_>
          13 1 3 2 -1.</_>
        <_>
          13 2 3 1 2.</_></rects>
      <tilted>0</tilted></_>
    <_>
      <rects>
        <_>
          13 5 10 3 -1.</_>
        <_>
          18 5 5 3 2.</_></rects>
      <tilted>0</tilted></_>
    <_>
      <rects>
        <_>
          13 12 9 6 -1.</_>
        <_>
          16 12 3 6 3.</_></rects>
      <tilted>0</tilted></_>
    <_>
      <rects>
        <_>
          14 0 9 1 -1.</_>
        <_>
          17 0 3 1 3.</_></rects>
      <tilted>0</tilted></_>
    <_>
      <rects>
        <_>
          14 0 10 2 -1.</_>
        <_>
          14 0 5 1 2.</_>
        <_>
          19 1 5 1 2.</_></rects>
      <tilted>0</tilted></_>
    <_>
      <rects>
        <_>
          14 3 7 6 -1.</_>
        <_>
          14 5 7 2 3.</_></rects>
      <tilted>0</tilted></_>
    <_>
      <rects>
        <_>
          15 0 1 4 -1.</_>
        <_>
          15 2 1 2 2.</_></rects>
      <tilted>0</tilted></_>
    <_>
      <rects>
        <_>
          15 1 3 1 -1.</_>
        <_>
          16 1 1 1 3.</_></rects>
      <tilted>0</tilted></_>
    <_>
      <rects>
        <_>
          15 6 2 2 -1.</_>
        <_>
          15 6 1 1 2.</_>
        <_>
          16 7 1 1 2.</_></rects>
      <tilted>0</tilted></_>
    <_>
      <rects>
        <_>
          15 16 6 2 -1.</_>
        <_>
          18 16 3 2 2.</_></rects>
      <tilted>0</tilted></_>
    <_>
      <rects>
        <_>
          15 23 6 1 -1.</_>
        <_>
          18 23 3 1 2.</_></rects>
      <tilted>0</tilted></_>
    <_>
      <rects>
        <_>
          15 23 9 1 -1.</_>
        <_>
          18 23 3 1 3.</_></rects>
      <tilted>0</tilted></_>
    <_>
      <rects>
        <_>
          16 4 5 18 -1.</_>
        <_>
          16 10 5 6 3.</_></rects>
      <tilted>0</tilted></_>
    <_>
      <rects>
        <_>
          16 7 8 11 -1.</_>
        <_>
          20 7 4 11 2.</_></rects>
      <tilted>0</tilted></_>
    <_>
      <rects>
        <_>
          17 0 2 2 -1.</_>
        <_>
          18 0 1 2 2.</_></rects>
      <tilted>0</tilted></_>
    <_>
      <rects>
        <_>
          17 0 6 20 -1.</_>
        <_>
          19 0 2 20 3.</_></rects>
      <tilted>0</tilted></_>
    <_>
      <rects>
        <_>
          17 7 6 8 -1.</_>
        <_>
          17 7 3 4 2.</_>
        <_>
          20 11 3 4 2.</_></rects>
      <tilted>0</tilted></_>
    <_>
      <rects>
        <_>
          17 7 6 12 -1.</_>
        <_>
          20 7 3 12 2.</_></rects>
      <tilted>0</tilted></_>
    <_>
      <rects>
        <_>
          17 8 6 5 -1.</_>
        <_>
          19 8 2 5 3.</_></rects>
      <tilted>0</tilted></_>
    <_>
      <rects>
        <_>
          17 10 6 6 -1.</_>
        <_>
          20 10 3 6 2.</_></rects>
      <tilted>0</tilted></_>
    <_>
      <rects>
        <_>
          17 16 5 3 -1.</_>
        <_>
          17 17 5 1 3.</_></rects>
      <tilted>0</tilted></_>
    <_>
      <rects>
        <_>
          18 0 6 1 -1.</_>
        <_>
          20 0 2 1 3.</_></rects>
      <tilted>0</tilted></_>
    <_>
      <rects>
        <_>
          18 3 6 8 -1.</_>
        <_>
          18 3 3 4 2.</_>
        <_>
          21 7 3 4 2.</_></rects>
      <tilted>0</tilted></_>
    <_>
      <rects>
        <_>
          18 4 6 10 -1.</_>
        <_>
          21 4 3 10 2.</_></rects>
      <tilted>0</tilted></_>
    <_>
      <rects>
        <_>
          18 4 6 20 -1.</_>
        <_>
          18 4 3 10 2.</_>
        <_>
          21 14 3 10 2.</_></rects>
      <tilted>0</tilted></_>
    <_>
      <rects>
        <_>
          18 7 6 9 -1.</_>
        <_>
          21 7 3 9 2.</_></rects>
      <tilted>0</tilted></_>
    <_>
      <rects>
        <_>
          18 10 2 2 -1.</_>
        <_>
          19 10 1 2 2.</_></rects>
      <tilted>0</tilted></_>
    <_>
      <rects>
        <_>
          18 10 6 3 -1.</_>
        <_>
          20 10 2 3 3.</_></rects>
      <tilted>0</tilted></_>
    <_>
      <rects>
        <_>
          18 10 4 8 -1.</_>
        <_>
          20 10 2 8 2.</_></rects>
      <tilted>0</tilted></_>
    <_>
      <rects>
        <_>
          18 11 6 4 -1.</_>
        <_>
          20 11 2 4 3.</_></rects>
      <tilted>0</tilted></_>
    <_>
      <rects>
        <_>
          18 13 4 8 -1.</_>
        <_>
          18 13 2 4 2.</_>
        <_>
          20 17 2 4 2.</_></rects>
      <tilted>0</tilted></_>
    <_>
      <rects>
        <_>
          18 23 6 1 -1.</_>
        <_>
          20 23 2 1 3.</_></rects>
      <tilted>0</tilted></_>
    <_>
      <rects>
        <_>
          19 0 2 2 -1.</_>
        <_>
          20 0 1 2 2.</_></rects>
      <tilted>0</tilted></_>
    <_>
      <rects>
        <_>
          19 0 4 2 -1.</_>
        <_>
          21 0 2 2 2.</_></rects>
      <tilted>0</tilted></_>
    <_>
      <rects>
        <_>
          19 6 4 8 -1.</_>
        <_>
          21 6 2 8 2.</_></rects>
      <tilted>0</tilted></_>
    <_>
      <rects>
        <_>
          19 8 2 3 -1.</_>
        <_>
          20 8 1 3 2.</_></rects>
      <tilted>0</tilted></_>
    <_>
      <rects>
        <_>
          20 0 1 4 -1.</_>
        <_>
          20 2 1 2 2.</_></rects>
      <tilted>0</tilted></_>
    <_>
      <rects>
        <_>
          20 3 2 10 -1.</_>
        <_>
          21 3 1 10 2.</_></rects>
      <tilted>0</tilted></_>
    <_>
      <rects>
        <_>
          20 10 4 5 -1.</_>
        <_>
          22 10 2 5 2.</_></rects>
      <tilted>0</tilted></_>
    <_>
      <rects>
        <_>
          20 12 2 3 -1.</_>
        <_>
          21 12 1 3 2.</_></rects>
      <tilted>0</tilted></_>
    <_>
      <rects>
        <_>
          20 13 2 8 -1.</_>
        <_>
          20 13 1 4 2.</_>
        <_>
          21 17 1 4 2.</_></rects>
      <tilted>0</tilted></_>
    <_>
      <rects>
        <_>
          20 23 4 1 -1.</_>
        <_>
          22 23 2 1 2.</_></rects>
      <tilted>0</tilted></_>
    <_>
      <rects>
        <_>
          21 1 3 1 -1.</_>
        <_>
          22 1 1 1 3.</_></rects>
      <tilted>0</tilted></_>
    <_>
      <rects>
        <_>
          21 1 3 3 -1.</_>
        <_>
          22 1 1 3 3.</_></rects>
      <tilted>0</tilted></_>
    <_>
      <rects>
        <_>
          22 0 2 2 -1.</_>
        <_>
          22 1 2 1 2.</_></rects>
      <tilted>0</tilted></_>
    <_>
      <rects>
        <_>
          22 1 2 6 -1.</_>
        <_>
          23 1 1 6 2.</_></rects>
      <tilted>0</tilted></_>
    <_>
      <rects>
        <_>
          22 3 2 16 -1.</_>
        <_>
          22 11 2 8 2.</_></rects>
      <tilted>0</tilted></_>
    <_>
      <rects>
        <_>
          22 5 2 13 -1.</_>
        <_>
          23 5 1 13 2.</_></rects>
      <tilted>0</tilted></_>
    <_>
      <rects>
        <_>
          22 8 2 3 -1.</_>
        <_>
          23 8 1 3 2.</_></rects>
      <tilted>0</tilted></_>
    <_>
      <rects>
        <_>
          22 10 2 3 -1.</_>
        <_>
          23 10 1 3 2.</_></rects>
      <tilted>0</tilted></_>
    <_>
      <rects>
        <_>
          22 12 2 6 -1.</_>
        <_>
          22 14 2 2 3.</_></rects>
      <tilted>0</tilted></_>
    <_>
      <rects>
        <_>
          22 13 2 5 -1.</_>
        <_>
          23 13 1 5 2.</_></rects>
      <tilted>0</tilted></_>
    <_>
      <rects>
        <_>
          22 16 2 6 -1.</_>
        <_>
          22 18 2 2 3.</_></rects>
      <tilted>0</tilted></_>
    <_>
      <rects>
        <_>
          22 16 2 8 -1.</_>
        <_>
          22 20 2 4 2.</_></rects>
      <tilted>0</tilted></_>
    <_>
      <rects>
        <_>
          22 18 1 3 -1.</_>
        <_>
          22 19 1 1 3.</_></rects>
      <tilted>0</tilted></_>
    <_>
      <rects>
        <_>
          22 23 2 1 -1.</_>
        <_>
          23 23 1 1 2.</_></rects>
      <tilted>0</tilted></_>
    <_>
      <rects>
        <_>
          23 0 1 4 -1.</_>
        <_>
          23 2 1 2 2.</_></rects>
      <tilted>0</tilted></_>
    <_>
      <rects>
        <_>
          23 0 1 9 -1.</_>
        <_>
          23 3 1 3 3.</_></rects>
      <tilted>0</tilted></_>
    <_>
      <rects>
        <_>
          23 0 1 8 -1.</_>
        <_>
          23 4 1 4 2.</_></rects>
      <tilted>0</tilted></_>
    <_>
      <rects>
        <_>
          23 0 1 21 -1.</_>
        <_>
          23 7 1 7 3.</_></rects>
      <tilted>0</tilted></_>
    <_>
      <rects>
        <_>
          23 4 1 9 -1.</_>
        <_>
          23 7 1 3 3.</_></rects>
      <tilted>0</tilted></_>
    <_>
      <rects>
        <_>
          23 6 1 9 -1.</_>
        <_>
          23 9 1 3 3.</_></rects>
      <tilted>0</tilted></_>
    <_>
      <rects>
        <_>
          23 9 1 12 -1.</_>
        <_>
          23 13 1 4 3.</_></rects>
      <tilted>0</tilted></_>
    <_>
      <rects>
        <_>
          23 11 1 4 -1.</_>
        <_>
          23 13 1 2 2.</_></rects>
      <tilted>0</tilted></_>
    <_>
      <rects>
        <_>
          23 11 1 6 -1.</_>
        <_>
          23 13 1 2 3.</_></rects>
      <tilted>0</tilted></_>
    <_>
      <rects>
        <_>
          23 12 1 6 -1.</_>
        <_>
          23 14 1 2 3.</_></rects>
      <tilted>0</tilted></_>
    <_>
      <rects>
        <_>
          23 13 1 9 -1.</_>
        <_>
          23 16 1 3 3.</_></rects>
      <tilted>0</tilted></_>
    <_>
      <rects>
        <_>
          23 16 1 8 -1.</_>
        <_>
          23 20 1 4 2.</_></rects>
      <tilted>0</tilted></_>
    <_>
      <rects>
        <_>
          23 18 1 6 -1.</_>
        <_>
          23 21 1 3 2.</_></rects>
      <tilted>0</tilted></_>
    <_>
      <rects>
        <_>
          23 20 1 4 -1.</_>
        <_>
          23 22 1 2 2.</_></rects>
      <tilted>0</tilted></_></features></cascade>
</opencv_storage>
